{"_timestamp":1.7458513546007721e+09,"_step":52,"parameters/classifier.0.weight":{"_type":"histogram","values":[2,1,4,4,4,2,4,7,9,9,9,4,10,25,17,25,18,22,32,20,27,22,21,19,31,29,34,30,23,23,26,16,21,25,23,23,25,26,20,20,17,19,12,25,22,25,28,21,14,19,19,19,9,7,11,10,7,7,8,4,3,2,3,1],"bins":[-0.42423778772354126,-0.4110703468322754,-0.3979029059410095,-0.38473546504974365,-0.3715680241584778,-0.3584005832672119,-0.34523314237594604,-0.3320657014846802,-0.3188982605934143,-0.3057308495044708,-0.29256340861320496,-0.2793959677219391,-0.2662285268306732,-0.25306108593940735,-0.23989364504814148,-0.2267262041568756,-0.21355876326560974,-0.20039132237434387,-0.187223881483078,-0.17405644059181213,-0.16088899970054626,-0.1477215737104416,-0.13455413281917572,-0.12138669192790985,-0.10821925103664398,-0.09505181014537811,-0.08188436925411224,-0.06871693581342697,-0.0555494949221611,-0.04238205403089523,-0.029214616864919662,-0.016047177836298943,-0.0028797388076782227,0.010287700220942497,0.023455139249563217,0.03662257641553879,0.04979001730680466,0.06295745819807053,0.0761248916387558,0.08929233253002167,0.10245977342128754,0.1156272143125534,0.12879465520381927,0.14196209609508514,0.15512952208518982,0.1682969629764557,0.18146440386772156,0.19463184475898743,0.2077992856502533,0.22096672654151917,0.23413416743278503,0.2473016083240509,0.2604690492153168,0.27363649010658264,0.2868039309978485,0.2999713718891144,0.31313878297805786,0.32630622386932373,0.3394736647605896,0.35264110565185547,0.36580854654312134,0.3789759874343872,0.3921434283256531,0.40531086921691895,0.4184783101081848]},"train/acc":0.9625,"_runtime":23.912664082,"epoch":49,"parameters/projector.weight":{"_type":"histogram","values":[1,0,0,1,0,1,2,1,3,2,0,7,6,10,13,10,6,9,9,9,9,12,13,19,15,16,12,14,18,22,11,18,16,18,15,9,15,13,15,10,13,14,11,11,9,9,7,16,8,3,8,6,8,2,1,1,2,1,0,0,1,0,0,1],"bins":[-0.37657448649406433,-0.3642505407333374,-0.35192662477493286,-0.33960267901420593,-0.3272787630558014,-0.31495481729507446,-0.3026309013366699,-0.290306955575943,-0.27798300981521606,-0.2656590938568115,-0.2533351480960846,-0.24101123213768005,-0.22868728637695312,-0.2163633555173874,-0.20403942465782166,-0.19171549379825592,-0.17939156293869019,-0.16706763207912445,-0.15474370121955872,-0.14241977035999298,-0.13009583950042725,-0.11777190119028091,-0.10544796288013458,-0.09312403202056885,-0.08080010116100311,-0.06847617030143738,-0.056152235716581345,-0.04382830113172531,-0.031504370272159576,-0.019180437549948692,-0.006856504827737808,0.005467427894473076,0.01779136061668396,0.030115293338894844,0.04243922606110573,0.05476316064596176,0.0670870915055275,0.07941102236509323,0.09173496067523956,0.1040588915348053,0.11638282239437103,0.12870675325393677,0.1410306841135025,0.15335461497306824,0.16567856073379517,0.1780024915933609,0.19032642245292664,0.20265035331249237,0.2149742841720581,0.22729821503162384,0.23962214589118958,0.2519460916519165,0.26427000761032104,0.276593953371048,0.2889178693294525,0.30124181509017944,0.313565731048584,0.3258896768093109,0.33821362257003784,0.3505375385284424,0.3628614842891693,0.37518540024757385,0.3875093460083008,0.3998332619667053,0.41215720772743225]},"parameters/feature_extractor.conv2.weight":{"bins":[-0.23306870460510254,-0.22618617117404938,-0.21930363774299622,-0.21242110431194305,-0.2055385708808899,-0.19865603744983673,-0.19177350401878357,-0.1848909705877304,-0.17800843715667725,-0.17112591862678528,-0.16424338519573212,-0.15736085176467896,-0.1504783183336258,-0.14359578490257263,-0.13671325147151947,-0.1298307180404663,-0.12294818460941315,-0.11606565117835999,-0.10918311774730682,-0.10230058431625366,-0.0954180508852005,-0.08853552490472794,-0.08165299147367477,-0.07477045804262161,-0.06788792461156845,-0.06100539118051529,-0.05412285774946213,-0.047240328043699265,-0.0403577946126461,-0.03347526118159294,-0.02659272961318493,-0.019710198044776917,-0.012827664613723755,-0.005945132113993168,0.0009374003857374191,0.007819932885468006,0.014702465385198593,0.021584998816251755,0.028467530384659767,0.03535006195306778,0.04223259538412094,0.0491151288151741,0.055997662246227264,0.06288019567728043,0.06976272165775299,0.07664525508880615,0.08352778851985931,0.09041032195091248,0.09729285538196564,0.1041753888130188,0.11105792224407196,0.11794045567512512,0.12482298910617828,0.13170552253723145,0.1385880559682846,0.14547058939933777,0.15235310792922974,0.1592356413602829,0.16611817479133606,0.17300070822238922,0.17988324165344238,0.18676577508449554,0.1936483085155487,0.20053084194660187,0.20741337537765503],"_type":"histogram","values":[4,0,2,0,5,4,6,8,16,15,19,34,38,64,78,82,92,132,142,169,206,247,274,342,384,426,452,492,508,554,566,553,590,588,581,574,548,516,463,420,418,364,319,244,232,202,193,121,124,94,74,58,40,28,25,19,17,12,8,5,3,2,3,1]},"parameters/classifier.2.bias":{"bins":[-0.14163090288639069,-0.14163090288639069],"_type":"histogram","values":[1]},"test/batch_acc":0.890625,"val/loss":0.17489361584186555,"parameters/feature_extractor.conv2.bias":{"_type":"histogram","values":[1,0,0,0,0,0,1,0,0,0,1,0,1,0,0,0,0,0,0,0,0,0,0,1,0,2,0,2,0,0,1,0,2,0,1,2,0,0,0,0,0,1,1,0,3,1,0,2,0,2,1,1,1,1,2,0,0,0,0,0,0,0,0,1],"bins":[-0.05736789107322693,-0.05627712234854698,-0.05518635734915733,-0.054095588624477386,-0.05300482362508774,-0.05191405490040779,-0.05082328990101814,-0.049732521176338196,-0.04864175617694855,-0.0475509874522686,-0.046460218727588654,-0.045369453728199005,-0.04427868500351906,-0.04318792000412941,-0.04209715127944946,-0.041006386280059814,-0.03991561755537987,-0.03882484883069992,-0.03773408383131027,-0.036643315106630325,-0.03555255010724068,-0.03446178138256073,-0.03337101638317108,-0.032280247658491135,-0.031189480796456337,-0.03009871393442154,-0.02900794707238674,-0.027917180210351944,-0.026826411485671997,-0.0257356446236372,-0.0246448777616024,-0.023554110899567604,-0.022463342174887657,-0.02137257531285286,-0.020281808450818062,-0.019191041588783264,-0.018100272864103317,-0.01700950600206852,-0.015918739140033722,-0.014827972277998924,-0.013737205415964127,-0.012646438553929329,-0.011555671691894531,-0.010464903898537159,-0.009374137036502361,-0.008283370174467564,-0.007192602846771479,-0.006101835519075394,-0.005011068657040596,-0.003920301795005798,-0.0028295344673097134,-0.001738767372444272,-0.0006480002775788307,0.0004427668172866106,0.001533533912152052,0.0026243010070174932,0.0037150681018829346,0.004805834963917732,0.005896602291613817,0.006987369619309902,0.0080781364813447,0.009168903343379498,0.01025967113673687,0.011350437998771667,0.012441204860806465]},"parameters/feature_extractor.conv1.bias":{"values":[1,0,0,0,0,0,0,0,0,1,0,0,0,0,0,0,0,0,0,0,0,0,0,1,0,0,0,0,0,0,0,0,0,0,0,0,0,0,0,0,0,0,0,0,0,0,1,0,0,0,2,2,7,0,0,0,0,0,0,0,0,0,0,1],"bins":[-0.052030403167009354,-0.05104260891675949,-0.05005481094121933,-0.04906701669096947,-0.048079218715429306,-0.04709142446517944,-0.04610362648963928,-0.04511583223938942,-0.04412803798913956,-0.043140240013599396,-0.04215244576334953,-0.04116464778780937,-0.04017685353755951,-0.03918905556201935,-0.038201261311769485,-0.037213463336229324,-0.03622566908597946,-0.0352378748357296,-0.03425007686018944,-0.033262282609939575,-0.032274484634399414,-0.03128669038414955,-0.03029889427125454,-0.029311098158359528,-0.028323302045464516,-0.027335505932569504,-0.026347709819674492,-0.02535991370677948,-0.024372119456529617,-0.023384323343634605,-0.022396527230739594,-0.02140873111784458,-0.02042093500494957,-0.019433138892054558,-0.018445342779159546,-0.017457546666264534,-0.016469750553369522,-0.01548195444047451,-0.014494158327579498,-0.013506363146007061,-0.012518567033112049,-0.011530770920217037,-0.0105429757386446,-0.009555179625749588,-0.008567383512854576,-0.007579587399959564,-0.00659179175272584,-0.005603996105492115,-0.004616199992597103,-0.003628404112532735,-0.0026406082324683666,-0.0016528123524039984,-0.0006650164723396301,0.0003227794077247381,0.0013105752877891064,0.0022983711678534746,0.003286167047917843,0.004273963160812855,0.005261758808046579,0.006249554455280304,0.007237350568175316,0.008225146681070328,0.00921294279396534,0.010200737975537777,0.011188534088432789],"_type":"histogram"},"_wandb":{"runtime":23},"gradients/classifier.0.bias":{"_type":"histogram","values":[1,0,1,0,0,2,6,3,3,1,25,0,1,3,0,6,4,2,0,2,1,0,0,0,1,0,0,0,1,0,0,0,0,0,0,0,0,0,0,0,0,0,0,0,0,0,0,0,0,0,0,0,0,0,0,0,0,0,0,0,0,0,0,1],"bins":[-6.828125,-6.179443359375,-5.53076171875,-4.882080078125,-4.2333984375,-3.584716796875,-2.93603515625,-2.287353515625,-1.638671875,-0.989990234375,-0.34130859375,0.307373046875,0.9560546875,1.604736328125,2.25341796875,2.902099609375,3.55078125,4.199462890625,4.84814453125,5.496826171875,6.1455078125,6.794189453125,7.44287109375,8.091552734375,8.740234375,9.388916015625,10.03759765625,10.686279296875,11.3349609375,11.983642578125,12.63232421875,13.281005859375,13.9296875,14.578369140625,15.22705078125,15.875732421875,16.5244140625,17.173095703125,17.82177734375,18.470458984375,19.119140625,19.767822265625,20.41650390625,21.065185546875,21.7138671875,22.362548828125,23.01123046875,23.659912109375,24.30859375,24.957275390625,25.60595703125,26.254638671875,26.9033203125,27.552001953125,28.20068359375,28.849365234375,29.498046875,30.146728515625,30.79541015625,31.444091796875,32.0927734375,32.741455078125,33.39013671875,34.038818359375,34.6875]},"parameters/projector.bias":{"_type":"histogram","values":[1,0,0,0,0,0,0,0,0,0,1,0,0,1,0,0,0,0,1,1,0,0,2,1,2,0,1,1,0,1,1,0,1,0,0,0,1,1,0,1,2,2,1,1,1,0,0,0,1,0,0,0,0,1,0,1,0,1,0,0,0,1,1,1],"bins":[-0.5385220050811768,-0.5244038105010986,-0.5102855563163757,-0.4961673617362976,-0.4820491373538971,-0.4679309129714966,-0.45381271839141846,-0.43969449400901794,-0.42557626962661743,-0.4114580452442169,-0.3973398208618164,-0.3832216262817383,-0.36910340189933777,-0.35498517751693726,-0.34086698293685913,-0.3267487585544586,-0.3126305341720581,-0.2985123097896576,-0.2843940854072571,-0.27027589082717896,-0.25615766644477844,-0.24203944206237793,-0.2279212325811386,-0.2138030230998993,-0.19968479871749878,-0.18556657433509827,-0.17144836485385895,-0.15733015537261963,-0.14321193099021912,-0.1290937066078186,-0.11497549712657928,-0.10085728019475937,-0.08673903346061707,-0.07262081652879715,-0.058502599596977234,-0.04438438266515732,-0.030266165733337402,-0.016147948801517487,-0.002029731869697571,0.012088485062122345,0.02620670199394226,0.040324918925762177,0.05444313585758209,0.06856135278940201,0.08267956972122192,0.09679778665304184,0.11091600358486176,0.12503421306610107,0.1391524374485016,0.1532706618309021,0.16738887131214142,0.18150708079338074,0.19562530517578125,0.20974352955818176,0.22386173903942108,0.2379799485206604,0.2520981729030609,0.2662163972854614,0.28033459186553955,0.29445281624794006,0.3085710406303406,0.3226892650127411,0.3368074893951416,0.3509256839752197,0.36504390835762024]},"parameters/classifier.2.weight":{"bins":[-0.8613499402999878,-0.8411383032798767,-0.8209266662597656,-0.8007150292396545,-0.7805033326148987,-0.7602916955947876,-0.7400800585746765,-0.7198684215545654,-0.6996567845344543,-0.6794451475143433,-0.6592334508895874,-0.6390218138694763,-0.6188101768493652,-0.5985985398292542,-0.5783869028091431,-0.558175265789032,-0.5379636287689209,-0.517751932144165,-0.49754029512405396,-0.47732865810394287,-0.4571170210838318,-0.4369053542613983,-0.41669371724128723,-0.39648208022117615,-0.3762704133987427,-0.3560587763786316,-0.3358471393585205,-0.3156355023384094,-0.29542383551597595,-0.27521219849586487,-0.2550005614757538,-0.2347889095544815,-0.21457725763320923,-0.19436560571193695,-0.17415396869182587,-0.1539423167705536,-0.1337306797504425,-0.11351902782917023,-0.09330737590789795,-0.07309573143720627,-0.05288408696651459,-0.032672442495822906,-0.012460794299840927,0.007750852033495903,0.027962498366832733,0.048174142837524414,0.06838579475879669,0.08859743922948837,0.10880908370018005,0.12902073562145233,0.14923237264156342,0.1694440245628357,0.18965566158294678,0.20986731350421906,0.23007896542549133,0.2502906024456024,0.2705022692680359,0.290713906288147,0.31092554330825806,0.33113718032836914,0.3513488471508026,0.3715604841709137,0.3917721211910248,0.41198378801345825,0.43219542503356934],"_type":"histogram","values":[1,0,0,0,0,1,1,0,0,0,0,0,1,1,2,2,1,2,1,1,0,1,2,2,0,0,0,0,1,1,1,0,0,0,0,0,1,2,2,1,2,2,2,1,3,6,4,2,0,0,1,2,0,0,1,0,2,1,2,2,1,0,1,1]},"history/same_diff":{"height":800,"_type":"image-file","sha256":"b217f66741f43093ccaa049e43a00f0aff23dfd3ac57b308df5ed8a5df83cf47","size":68280,"path":"media/images/history/same_diff_50_b217f66741f43093ccaa.png","format":"png","width":1600},"test/loss":0.2906293575644493,"parameters/feature_extractor.conv1.weight":{"_type":"histogram","values":[1,1,0,0,0,0,0,0,0,0,1,0,2,2,1,6,1,3,4,4,8,5,6,9,14,8,10,6,8,13,16,18,16,14,7,21,16,16,14,12,9,14,10,9,11,11,16,9,10,4,7,3,6,3,2,3,2,2,3,1,1,0,0,1],"bins":[-0.2941665053367615,-0.28629270195961,-0.2784188985824585,-0.270545095205307,-0.26267126202583313,-0.25479745864868164,-0.24692365527153015,-0.23904985189437866,-0.23117604851722717,-0.2233022302389145,-0.215428426861763,-0.2075546234846115,-0.19968080520629883,-0.19180700182914734,-0.18393319845199585,-0.17605938017368317,-0.16818557679653168,-0.1603117734193802,-0.1524379551410675,-0.14456415176391602,-0.13669034838676453,-0.12881653010845184,-0.12094272673130035,-0.11306892335414886,-0.10519511252641678,-0.09732130169868469,-0.0894474983215332,-0.08157368749380112,-0.07369987666606903,-0.06582607328891754,-0.057952262461185455,-0.05007845535874367,-0.042204633355140686,-0.0343308262526989,-0.02645701728761196,-0.018583208322525024,-0.010709401220083237,-0.0028355931863188744,0.005038214847445488,0.01291202288120985,0.020785830914974213,0.028659638017416,0.03653344511985779,0.044407255947589874,0.05228106305003166,0.06015487015247345,0.06802868098020554,0.07590248435735703,0.08377629518508911,0.0916501060128212,0.09952390938997269,0.10739772021770477,0.11527152359485626,0.12314533442258835,0.13101914525032043,0.13889294862747192,0.1467667520046234,0.1546405702829361,0.16251437366008759,0.17038817703723907,0.17826199531555176,0.18613579869270325,0.19400960206985474,0.20188342034816742,0.2097572237253189]},"gradients/feature_extractor.conv1.weight":{"values":[1,1,4,0,0,2,1,2,4,0,1,1,1,1,0,1,0,2,5,1,1,2,2,3,4,5,10,13,23,28,50,49,112,15,3,0,1,0,1,0,1,0,2,3,0,0,2,4,0,1,6,3,3,3,3,2,5,3,0,4,2,0,1,2],"bins":[-2542,-2463.21875,-2384.4375,-2305.65625,-2226.875,-2148.09375,-2069.3125,-1990.53125,-1911.75,-1832.96875,-1754.1875,-1675.40625,-1596.625,-1517.84375,-1439.0625,-1360.28125,-1281.5,-1202.71875,-1123.9375,-1045.15625,-966.375,-887.59375,-808.8125,-730.03125,-651.25,-572.46875,-493.6875,-414.90625,-336.125,-257.34375,-178.5625,-99.78125,-21,57.78125,136.5625,215.34375,294.125,372.90625,451.6875,530.46875,609.25,688.03125,766.8125,845.59375,924.375,1003.15625,1081.9375,1160.71875,1239.5,1318.28125,1397.0625,1475.84375,1554.625,1633.40625,1712.1875,1790.96875,1869.75,1948.53125,2027.3125,2106.09375,2184.875,2263.65625,2342.4375,2421.21875,2500],"_type":"histogram"},"val/acc":0.94,"test/batch_loss":0.22792960703372955,"gradients/feature_extractor.fc.weight":{"bins":[-470.25,-455.76953125,-441.2890625,-426.80859375,-412.328125,-397.84765625,-383.3671875,-368.88671875,-354.40625,-339.92578125,-325.4453125,-310.96484375,-296.484375,-282.00390625,-267.5234375,-253.04296875,-238.5625,-224.08203125,-209.6015625,-195.12109375,-180.640625,-166.16015625,-151.6796875,-137.19921875,-122.71875,-108.23828125,-93.7578125,-79.27734375,-64.796875,-50.31640625,-35.8359375,-21.35546875,-6.875,7.60546875,22.0859375,36.56640625,51.046875,65.52734375,80.0078125,94.48828125,108.96875,123.44921875,137.9296875,152.41015625,166.890625,181.37109375,195.8515625,210.33203125,224.8125,239.29296875,253.7734375,268.25390625,282.734375,297.21484375,311.6953125,326.17578125,340.65625,355.13671875,369.6171875,384.09765625,398.578125,413.05859375,427.5390625,442.01953125,456.5],"_type":"histogram","values":[1,0,0,2,1,0,0,3,0,1,2,2,2,3,7,2,12,5,8,13,11,19,18,35,41,51,87,118,152,236,432,1337,27651,1245,379,212,154,129,104,72,41,40,25,18,15,14,12,12,10,2,8,3,6,1,1,1,5,2,1,1,1,1,0,1]},"gradients/feature_extractor.conv1.bias":{"bins":[-5832,-5650.5,-5469,-5287.5,-5106,-4924.5,-4743,-4561.5,-4380,-4198.5,-4017,-3835.5,-3654,-3472.5,-3291,-3109.5,-2928,-2746.5,-2565,-2383.5,-2202,-2020.5,-1839,-1657.5,-1476,-1294.5,-1113,-931.5,-750,-568.5,-387,-205.5,-24,157.5,339,520.5,702,883.5,1065,1246.5,1428,1609.5,1791,1972.5,2154,2335.5,2517,2698.5,2880,3061.5,3243,3424.5,3606,3787.5,3969,4150.5,4332,4513.5,4695,4876.5,5058,5239.5,5421,5602.5,5784],"_type":"histogram","values":[1,0,0,0,0,0,0,0,0,0,0,0,0,1,0,0,0,0,0,0,0,0,0,0,0,1,1,0,0,3,1,1,2,0,0,1,0,0,0,0,1,0,0,0,0,0,0,0,0,1,0,0,0,0,1,0,0,0,0,0,0,0,0,1]},"gradients/feature_extractor.conv2.bias":{"_type":"histogram","values":[1,1,0,0,0,0,0,0,0,1,0,0,0,0,1,0,3,2,3,1,1,3,0,2,2,1,1,0,1,1,0,1,1,2,0,0,0,0,0,0,0,0,0,0,0,0,0,1,0,0,0,0,0,0,0,1,0,0,0,0,0,0,0,1],"bins":[-1988,-1894.9375,-1801.875,-1708.8125,-1615.75,-1522.6875,-1429.625,-1336.5625,-1243.5,-1150.4375,-1057.375,-964.3125,-871.25,-778.1875,-685.125,-592.0625,-499,-405.9375,-312.875,-219.8125,-126.75,-33.6875,59.375,152.4375,245.5,338.5625,431.625,524.6875,617.75,710.8125,803.875,896.9375,990,1083.0625,1176.125,1269.1875,1362.25,1455.3125,1548.375,1641.4375,1734.5,1827.5625,1920.625,2013.6875,2106.75,2199.8125,2292.875,2385.9375,2479,2572.0625,2665.125,2758.1875,2851.25,2944.3125,3037.375,3130.4375,3223.5,3316.5625,3409.625,3502.6875,3595.75,3688.8125,3781.875,3874.9375,3968]},"gradients/feature_extractor.fc.bias":{"_type":"histogram","values":[1,0,0,1,0,0,0,0,0,1,0,0,0,0,0,0,2,0,0,0,1,0,0,0,0,0,1,0,1,0,0,1,0,1,0,1,0,0,0,0,0,0,0,0,0,0,0,0,0,1,0,0,0,0,0,0,0,1,2,0,0,0,0,1],"bins":[-932.5,-903.3359375,-874.171875,-845.0078125,-815.84375,-786.6796875,-757.515625,-728.3515625,-699.1875,-670.0234375,-640.859375,-611.6953125,-582.53125,-553.3671875,-524.203125,-495.0390625,-465.875,-436.7109375,-407.546875,-378.3828125,-349.21875,-320.0546875,-290.890625,-261.7265625,-232.5625,-203.3984375,-174.234375,-145.0703125,-115.90625,-86.7421875,-57.578125,-28.4140625,0.75,29.9140625,59.078125,88.2421875,117.40625,146.5703125,175.734375,204.8984375,234.0625,263.2265625,292.390625,321.5546875,350.71875,379.8828125,409.046875,438.2109375,467.375,496.5390625,525.703125,554.8671875,584.03125,613.1953125,642.359375,671.5234375,700.6875,729.8515625,759.015625,788.1796875,817.34375,846.5078125,875.671875,904.8359375,934]},"gradients/projector.bias":{"_type":"histogram","values":[1,0,0,0,0,0,0,0,0,0,0,1,9,14,5,0,1,0,0,0,0,0,0,0,0,0,0,0,0,0,0,0,0,0,0,0,0,0,0,0,0,0,0,0,0,0,0,0,0,0,0,0,0,0,0,0,0,0,0,0,0,0,0,1],"bins":[-870,-803.09375,-736.1875,-669.28125,-602.375,-535.46875,-468.5625,-401.65625,-334.75,-267.84375,-200.9375,-134.03125,-67.125,-0.21875,66.6875,133.59375,200.5,267.40625,334.3125,401.21875,468.125,535.03125,601.9375,668.84375,735.75,802.65625,869.5625,936.46875,1003.375,1070.28125,1137.1875,1204.09375,1271,1337.90625,1404.8125,1471.71875,1538.625,1605.53125,1672.4375,1739.34375,1806.25,1873.15625,1940.0625,2006.96875,2073.875,2140.78125,2207.6875,2274.59375,2341.5,2408.40625,2475.3125,2542.21875,2609.125,2676.03125,2742.9375,2809.84375,2876.75,2943.65625,3010.5625,3077.46875,3144.375,3211.28125,3278.1875,3345.09375,3412]},"gradients/classifier.0.weight":{"_type":"histogram","values":[1,0,0,0,0,1,1,1,0,2,16,4,10,17,15,70,60,54,25,401,20,32,40,66,58,22,30,16,5,6,12,5,2,12,1,3,0,0,0,0,0,0,0,0,0,0,0,1,0,0,0,0,0,0,0,0,0,0,1,0,0,1,11,2],"bins":[-30.921875,-29.316650390625,-27.71142578125,-26.106201171875,-24.5009765625,-22.895751953125,-21.29052734375,-19.685302734375,-18.080078125,-16.474853515625,-14.86962890625,-13.264404296875,-11.6591796875,-10.053955078125,-8.44873046875,-6.843505859375,-5.23828125,-3.633056640625,-2.02783203125,-0.422607421875,1.1826171875,2.787841796875,4.39306640625,5.998291015625,7.603515625,9.208740234375,10.81396484375,12.419189453125,14.0244140625,15.629638671875,17.23486328125,18.840087890625,20.4453125,22.050537109375,23.65576171875,25.260986328125,26.8662109375,28.471435546875,30.07666015625,31.681884765625,33.287109375,34.892333984375,36.49755859375,38.102783203125,39.7080078125,41.313232421875,42.91845703125,44.523681640625,46.12890625,47.734130859375,49.33935546875,50.944580078125,52.5498046875,54.155029296875,55.76025390625,57.365478515625,58.970703125,60.575927734375,62.18115234375,63.786376953125,65.3916015625,66.996826171875,68.60205078125,70.207275390625,71.8125]},"parameters/feature_extractor.fc.bias":{"values":[1,0,0,0,0,0,0,0,0,0,1,0,0,0,0,0,0,1,0,0,1,0,0,0,0,0,0,0,1,0,0,0,1,0,0,0,0,1,0,1,1,0,0,0,1,1,0,1,0,0,1,1,0,0,0,0,1,0,0,0,0,0,0,1],"bins":[-0.03129223361611366,-0.03014242649078369,-0.02899261936545372,-0.027842814102768898,-0.026693006977438927,-0.025543199852108955,-0.024393394589424133,-0.023243587464094162,-0.02209378033876419,-0.02094397321343422,-0.019794166088104248,-0.018644360825419426,-0.017494553700089455,-0.016344746574759483,-0.015194940380752087,-0.01404513418674469,-0.012895327061414719,-0.011745519936084747,-0.01059571374207735,-0.009445907548069954,-0.008296100422739983,-0.007146293763071299,-0.005996487103402615,-0.004846680443733931,-0.0036968737840652466,-0.0025470671243965626,-0.0013972604647278786,-0.00024745380505919456,0.0009023528546094894,0.0020521595142781734,0.0032019661739468575,0.0043517728336155415,0.005501575767993927,0.006651382427662611,0.007801189087331295,0.008950995281338692,0.010100802406668663,0.011250609531998634,0.012400415726006031,0.013550221920013428,0.014700029045343399,0.01584983617067337,0.01699964329600334,0.018149448558688164,0.019299255684018135,0.020449062809348106,0.02159886807203293,0.0227486751973629,0.02389848232269287,0.025048289448022842,0.026198096573352814,0.027347901836037636,0.028497708961367607,0.02964751608669758,0.0307973213493824,0.03194712847471237,0.03309693560004234,0.034246742725372314,0.035396549850702286,0.03654635697603226,0.03769616037607193,0.0388459675014019,0.03999577462673187,0.041145581752061844,0.042295388877391815],"_type":"histogram"},"parameters/feature_extractor.fc.weight":{"values":[1,0,0,1,1,1,6,10,11,7,20,12,20,51,61,92,134,146,217,295,412,526,617,791,1060,1261,1457,1609,1709,1707,1919,1945,1931,1857,1839,1755,1628,1434,1367,1188,957,687,536,429,272,223,158,124,102,60,41,28,13,14,6,5,5,4,3,2,0,0,0,1],"bins":[-0.22198976576328278,-0.2151625007390976,-0.20833522081375122,-0.20150795578956604,-0.19468067586421967,-0.18785341084003448,-0.1810261309146881,-0.17419886589050293,-0.16737158596515656,-0.16054432094097137,-0.153717041015625,-0.14688977599143982,-0.14006249606609344,-0.13323523104190826,-0.1264079511165619,-0.11958068609237671,-0.11275341361761093,-0.10592614114284515,-0.09909886866807938,-0.0922715961933136,-0.08544432371854782,-0.07861705124378204,-0.07178977876901627,-0.06496250629425049,-0.05813523754477501,-0.05130796507000923,-0.044480692595243454,-0.037653420120477676,-0.030826149508357048,-0.02399887703359127,-0.017171606421470642,-0.010344333946704865,-0.003517061471939087,0.0033102105371654034,0.010137482546269894,0.016964754089713097,0.023792026564478874,0.030619299039244652,0.03744656965136528,0.04427384212613106,0.051101114600896835,0.05792838707566261,0.06475565582513809,0.07158292829990387,0.07841020077466965,0.08523747324943542,0.0920647457242012,0.09889201819896698,0.10571929067373276,0.11254656314849854,0.11937383562326431,0.1262011080980301,0.13302837312221527,0.13985565304756165,0.14668291807174683,0.1535101979970932,0.16033746302127838,0.16716474294662476,0.17399200797080994,0.1808192878961563,0.1876465529203415,0.19447383284568787,0.20130109786987305,0.20812837779521942,0.2149556428194046],"_type":"histogram"},"gradients/classifier.2.weight":{"_type":"histogram","values":[1,0,0,1,0,0,0,1,1,0,0,0,0,0,2,2,0,2,0,0,1,1,0,3,0,2,1,0,0,0,1,1,0,1,2,1,1,1,3,1,0,1,0,26,0,0,1,0,0,1,1,0,1,0,0,1,0,0,0,0,0,0,0,2],"bins":[-20.15625,-19.6947021484375,-19.233154296875,-18.7716064453125,-18.31005859375,-17.8485107421875,-17.386962890625,-16.9254150390625,-16.4638671875,-16.0023193359375,-15.540771484375,-15.0792236328125,-14.61767578125,-14.1561279296875,-13.694580078125,-13.2330322265625,-12.771484375,-12.3099365234375,-11.848388671875,-11.3868408203125,-10.92529296875,-10.4637451171875,-10.002197265625,-9.5406494140625,-9.0791015625,-8.6175537109375,-8.156005859375,-7.6944580078125,-7.23291015625,-6.7713623046875,-6.309814453125,-5.8482666015625,-5.38671875,-4.9251708984375,-4.463623046875,-4.0020751953125,-3.54052734375,-3.0789794921875,-2.617431640625,-2.1558837890625,-1.6943359375,-1.2327880859375,-0.771240234375,-0.3096923828125,0.15185546875,0.6134033203125,1.074951171875,1.5364990234375,1.998046875,2.4595947265625,2.921142578125,3.3826904296875,3.84423828125,4.3057861328125,4.767333984375,5.2288818359375,5.6904296875,6.1519775390625,6.613525390625,7.0750732421875,7.53662109375,7.9981689453125,8.459716796875,8.9212646484375,9.3828125]},"train/loss":0.11302266943454742,"test/acc":0.8694,"gradients/projector.weight":{"_type":"histogram","values":[1,0,0,1,0,2,0,0,0,0,0,1,0,0,0,0,1,0,2,2,2,1,2,8,10,32,384,29,16,8,1,4,1,0,0,0,0,0,0,0,0,0,0,0,0,0,0,0,0,0,1,0,0,1,0,0,1,0,0,0,0,0,0,1],"bins":[-1269,-1220.75,-1172.5,-1124.25,-1076,-1027.75,-979.5,-931.25,-883,-834.75,-786.5,-738.25,-690,-641.75,-593.5,-545.25,-497,-448.75,-400.5,-352.25,-304,-255.75,-207.5,-159.25,-111,-62.75,-14.5,33.75,82,130.25,178.5,226.75,275,323.25,371.5,419.75,468,516.25,564.5,612.75,661,709.25,757.5,805.75,854,902.25,950.5,998.75,1047,1095.25,1143.5,1191.75,1240,1288.25,1336.5,1384.75,1433,1481.25,1529.5,1577.75,1626,1674.25,1722.5,1770.75,1819]},"gradients/feature_extractor.conv2.weight":{"_type":"histogram","values":[3,1,0,2,7,5,6,6,5,2,15,18,23,25,15,32,33,61,84,127,206,332,1035,8766,934,357,192,127,80,78,49,22,27,31,19,7,7,6,3,4,4,6,4,7,2,2,5,2,2,3,1,1,2,1,0,2,1,0,0,1,1,0,0,1],"bins":[-515,-493.0625,-471.125,-449.1875,-427.25,-405.3125,-383.375,-361.4375,-339.5,-317.5625,-295.625,-273.6875,-251.75,-229.8125,-207.875,-185.9375,-164,-142.0625,-120.125,-98.1875,-76.25,-54.3125,-32.375,-10.4375,11.5,33.4375,55.375,77.3125,99.25,121.1875,143.125,165.0625,187,208.9375,230.875,252.8125,274.75,296.6875,318.625,340.5625,362.5,384.4375,406.375,428.3125,450.25,472.1875,494.125,516.0625,538,559.9375,581.875,603.8125,625.75,647.6875,669.625,691.5625,713.5,735.4375,757.375,779.3125,801.25,823.1875,845.125,867.0625,889]},"parameters/classifier.0.bias":{"values":[1,0,0,0,3,1,1,2,1,0,0,2,0,1,1,0,1,1,0,0,3,1,1,1,2,3,3,1,0,0,0,0,0,4,0,3,2,2,2,1,3,0,0,1,1,0,2,1,3,1,1,0,0,3,0,0,0,1,0,1,0,0,1,1],"bins":[-0.2933206856250763,-0.2827729284763336,-0.27222514152526855,-0.2616773843765259,-0.2511296272277832,-0.24058185517787933,-0.23003408312797546,-0.2194863259792328,-0.20893855392932892,-0.19839078187942505,-0.18784302473068237,-0.1772952526807785,-0.16674748063087463,-0.15619972348213196,-0.1456519514322281,-0.1351041942834854,-0.12455642223358154,-0.11400865763425827,-0.103460893034935,-0.09291312098503113,-0.08236535638570786,-0.07181759178638458,-0.06126982346177101,-0.05072205513715744,-0.04017429053783417,-0.029626524075865746,-0.019078757613897324,-0.008530991151928902,0.0020167753100395203,0.012564541772007942,0.023112308233976364,0.033660076558589935,0.044207870960235596,0.05475563555955887,0.06530340015888214,0.07585117220878601,0.08639893680810928,0.09694670140743256,0.10749447345733643,0.1180422380566597,0.12859000265598297,0.13913777470588684,0.14968553185462952,0.1602333039045334,0.17078107595443726,0.18132883310317993,0.1918766051530838,0.20242436230182648,0.21297213435173035,0.22351990640163422,0.2340676635503769,0.24461543560028076,0.25516319274902344,0.2657109797000885,0.2762587368488312,0.28680649399757385,0.2973542809486389,0.3079020380973816,0.31844979524612427,0.32899755239486694,0.339545339345932,0.3500930964946747,0.36064085364341736,0.3711886405944824,0.3817363977432251],"_type":"histogram"},"gradients/classifier.2.bias":{"values":[1],"bins":[-7.71484375,-7.71484375],"_type":"histogram"}}